digraph Tree {
node [shape=box, style="rounded", color="black", fontname="helvetica"] ;
edge [fontname="helvetica"] ;
0 [label="spread1 <= -5.7\nsquared_error = 0.0\nsamples = 91\nvalue = 0.2"] ;
1 [label="spread1 <= -6.4\nsquared_error = 0.0\nsamples = 56\nvalue = 0.1"] ;
0 -> 1 [labeldistance=2.5, labelangle=45, headlabel="True"] ;
2 [label="spread1 <= -7.3\nsquared_error = 0.0\nsamples = 31\nvalue = 0.1"] ;
1 -> 2 ;
3 [label="squared_error = 0.0\nsamples = 5\nvalue = 0.1"] ;
2 -> 3 ;
4 [label="squared_error = 0.0\nsamples = 26\nvalue = 0.1"] ;
2 -> 4 ;
5 [label="spread1 <= -6.0\nsquared_error = 0.0\nsamples = 25\nvalue = 0.2"] ;
1 -> 5 ;
6 [label="squared_error = 0.0\nsamples = 13\nvalue = 0.2"] ;
5 -> 6 ;
7 [label="squared_error = 0.0\nsamples = 12\nvalue = 0.2"] ;
5 -> 7 ;
8 [label="spread1 <= -4.2\nsquared_error = 0.0\nsamples = 35\nvalue = 0.3"] ;
0 -> 8 [labeldistance=2.5, labelangle=-45, headlabel="False"] ;
9 [label="spread1 <= -5.0\nsquared_error = 0.0\nsamples = 28\nvalue = 0.3"] ;
8 -> 9 ;
10 [label="squared_error = 0.0\nsamples = 17\nvalue = 0.2"] ;
9 -> 10 ;
11 [label="squared_error = 0.0\nsamples = 11\nvalue = 0.3"] ;
9 -> 11 ;
12 [label="spread1 <= -3.8\nsquared_error = 0.0\nsamples = 7\nvalue = 0.4"] ;
8 -> 12 ;
13 [label="squared_error = 0.0\nsamples = 3\nvalue = 0.4"] ;
12 -> 13 ;
14 [label="squared_error = 0.0\nsamples = 4\nvalue = 0.4"] ;
12 -> 14 ;
}